<?xml version="1.0"?>
<opencv_storage>
<cascade>
  <stageType>BOOST</stageType>
  <featureType>HAAR</featureType>
  <height>64</height>
  <width>64</width>
  <stageParams>
    <boostType>GAB</boostType>
    <minHitRate>9.9500000476837158e-01</minHitRate>
    <maxFalseAlarm>5.0000000000000000e-01</maxFalseAlarm>
    <weightTrimRate>9.4999999999999996e-01</weightTrimRate>
    <maxDepth>1</maxDepth>
    <maxWeakCount>100</maxWeakCount></stageParams>
  <featureParams>
    <maxCatCount>0</maxCatCount>
    <featSize>1</featSize>
    <mode>BASIC</mode></featureParams>
  <stageNum>7</stageNum>
  <stages>
    <!-- stage 0 -->
    <_>
      <maxWeakCount>4</maxWeakCount>
      <stageThreshold>-6.8452900648117065e-01</stageThreshold>
      <weakClassifiers>
        <_>
          <internalNodes>
            0 -1 1 1.6993626952171326e-02</internalNodes>
          <leafValues>
            -7.4736839532852173e-01 6.7619049549102783e-01</leafValues></_>
        <_>
          <internalNodes>
            0 -1 36 2.7090595103800297e-03</internalNodes>
          <leafValues>
            -7.2387754917144775e-01 5.7908302545547485e-01</leafValues></_>
        <_>
          <internalNodes>
            0 -1 29 2.4428799748420715e-02</internalNodes>
          <leafValues>
            -8.6055576801300049e-01 4.6487858891487122e-01</leafValues></_>
        <_>
          <internalNodes>
            0 -1 6 7.3396977968513966e-03</internalNodes>
          <leafValues>
            -8.5427701473236084e-01 3.4431216120719910e-01</leafValues></_></weakClassifiers></_>
    <!-- stage 1 -->
    <_>
      <maxWeakCount>5</maxWeakCount>
      <stageThreshold>-1.1653696298599243e+00</stageThreshold>
      <weakClassifiers>
        <_>
          <internalNodes>
            0 -1 0 5.6645315140485764e-02</internalNodes>
          <leafValues>
            -8.0701756477355957e-01 4.4660192728042603e-01</leafValues></_>
        <_>
          <internalNodes>
            0 -1 40 1.1124994605779648e-02</internalNodes>
          <leafValues>
            -6.4160847663879395e-01 5.2976232767105103e-01</leafValues></_>
        <_>
          <internalNodes>
            0 -1 11 3.6801673471927643e-02</internalNodes>
          <leafValues>
            -5.7472032308578491e-01 5.4195034503936768e-01</leafValues></_>
        <_>
          <internalNodes>
            0 -1 33 3.6585554480552673e-02</internalNodes>
          <leafValues>
            -6.6900098323822021e-01 4.2788922786712646e-01</leafValues></_>
        <_>
          <internalNodes>
            0 -1 24 -1.9779019057750702e-03</internalNodes>
          <leafValues>
            3.8889935612678528e-01 -6.8658322095870972e-01</leafValues></_></weakClassifiers></_>
    <!-- stage 2 -->
    <_>
      <maxWeakCount>8</maxWeakCount>
      <stageThreshold>-1.0056586265563965e+00</stageThreshold>
      <weakClassifiers>
        <_>
          <internalNodes>
            0 -1 4 7.8682200983166695e-03</internalNodes>
          <leafValues>
            -4.9209931492805481e-01 6.1064428091049194e-01</leafValues></_>
        <_>
          <internalNodes>
            0 -1 39 -1.6087355092167854e-02</internalNodes>
          <leafValues>
            4.1761511564254761e-01 -6.4924216270446777e-01</leafValues></_>
        <_>
          <internalNodes>
            0 -1 18 -3.2087337225675583e-02</internalNodes>
          <leafValues>
            3.7157252430915833e-01 -6.9679081439971924e-01</leafValues></_>
        <_>
          <internalNodes>
            0 -1 41 5.7999510318040848e-03</internalNodes>
          <leafValues>
            -5.1877623796463013e-01 5.1864105463027954e-01</leafValues></_>
        <_>
          <internalNodes>
            0 -1 23 -4.5450020581483841e-02</internalNodes>
          <leafValues>
            5.5632460117340088e-01 -4.1299358010292053e-01</leafValues></_>
        <_>
          <internalNodes>
            0 -1 7 3.3808633685112000e-02</internalNodes>
          <leafValues>
            2.6580330729484558e-01 -7.9084748029708862e-01</leafValues></_>
        <_>
          <internalNodes>
            0 -1 25 -1.7439664225094020e-04</internalNodes>
          <leafValues>
            -7.4427437782287598e-01 2.8288754820823669e-01</leafValues></_>
        <_>
          <internalNodes>
            0 -1 20 1.6743799278629012e-05</internalNodes>
          <leafValues>
            2.3602804541587830e-01 -6.9537603855133057e-01</leafValues></_></weakClassifiers></_>
    <!-- stage 3 -->
    <_>
      <maxWeakCount>10</maxWeakCount>
      <stageThreshold>-1.4444218873977661e+00</stageThreshold>
      <weakClassifiers>
        <_>
          <internalNodes>
            0 -1 38 -1.0925204493105412e-02</internalNodes>
          <leafValues>
            8.0275231599807739e-01 -3.0068728327751160e-01</leafValues></_>
        <_>
          <internalNodes>
            0 -1 5 1.3347582891583443e-02</internalNodes>
          <leafValues>
            -6.8240338563919067e-01 3.7218007445335388e-01</leafValues></_>
        <_>
          <internalNodes>
            0 -1 34 5.4615028202533722e-03</internalNodes>
          <leafValues>
            -7.3780316114425659e-01 3.0867186188697815e-01</leafValues></_>
        <_>
          <internalNodes>
            0 -1 47 -1.4419088140130043e-02</internalNodes>
          <leafValues>
            5.4422855377197266e-01 -4.1976711153984070e-01</leafValues></_>
        <_>
          <internalNodes>
            0 -1 13 2.9603425413370132e-02</internalNodes>
          <leafValues>
            -4.7282350063323975e-01 4.2930161952972412e-01</leafValues></_>
        <_>
          <internalNodes>
            0 -1 17 1.0273348540067673e-02</internalNodes>
          <leafValues>
            2.9692545533180237e-01 -6.9516712427139282e-01</leafValues></_>
        <_>
          <internalNodes>
            0 -1 15 -1.1762316338717937e-02</internalNodes>
          <leafValues>
            2.0226114988327026e-01 -8.1839221715927124e-01</leafValues></_>
        <_>
          <internalNodes>
            0 -1 31 2.3684781044721603e-02</internalNodes>
          <leafValues>
            -7.2199904918670654e-01 2.8962570428848267e-01</leafValues></_>
        <_>
          <internalNodes>
            0 -1 16 -1.4922946320439223e-05</internalNodes>
          <leafValues>
            -8.0959784984588623e-01 1.3679352402687073e-01</leafValues></_>
        <_>
          <internalNodes>
            0 -1 35 2.8107009828090668e-02</internalNodes>
          <leafValues>
            2.0860648155212402e-01 -8.2173883914947510e-01</leafValues></_></weakClassifiers></_>
    <!-- stage 4 -->
    <_>
      <maxWeakCount>8</maxWeakCount>
      <stageThreshold>-1.0838348865509033e+00</stageThreshold>
      <weakClassifiers>
        <_>
          <internalNodes>
            0 -1 43 1.0913241654634476e-02</internalNodes>
          <leafValues>
            -5.3243243694305420e-01 4.5813953876495361e-01</leafValues></_>
        <_>
          <internalNodes>
            0 -1 3 1.0917365550994873e-02</internalNodes>
          <leafValues>
            -5.7020169496536255e-01 3.6921682953834534e-01</leafValues></_>
        <_>
          <internalNodes>
            0 -1 28 1.9453784261713736e-05</internalNodes>
          <leafValues>
            3.0360120534896851e-01 -6.3458526134490967e-01</leafValues></_>
        <_>
          <internalNodes>
            0 -1 12 -2.3832966689951718e-04</internalNodes>
          <leafValues>
            -8.0630517005920410e-01 2.5006636977195740e-01</leafValues></_>
        <_>
          <internalNodes>
            0 -1 32 -3.6118272691965103e-03</internalNodes>
          <leafValues>
            3.8106241822242737e-01 -5.4148763418197632e-01</leafValues></_>
        <_>
          <internalNodes>
            0 -1 26 -1.4161039143800735e-03</internalNodes>
          <leafValues>
            5.7397127151489258e-01 -3.6489158868789673e-01</leafValues></_>
        <_>
          <internalNodes>
            0 -1 37 9.7484691068530083e-03</internalNodes>
          <leafValues>
            -2.8245449066162109e-01 7.3066610097885132e-01</leafValues></_>
        <_>
          <internalNodes>
            0 -1 27 7.5850896537303925e-03</internalNodes>
          <leafValues>
            -2.0278513431549072e-01 7.7948027849197388e-01</leafValues></_></weakClassifiers></_>
    <!-- stage 5 -->
    <_>
      <maxWeakCount>8</maxWeakCount>
      <stageThreshold>-1.3691678047180176e+00</stageThreshold>
      <weakClassifiers>
        <_>
          <internalNodes>
            0 -1 30 6.2760822474956512e-03</internalNodes>
          <leafValues>
            -7.1906352043151855e-01 4.2914173007011414e-01</leafValues></_>
        <_>
          <internalNodes>
            0 -1 2 1.7777381464838982e-02</internalNodes>
          <leafValues>
            -6.3740885257720947e-01 4.3288534879684448e-01</leafValues></_>
        <_>
          <internalNodes>
            0 -1 42 4.1140159592032433e-03</internalNodes>
          <leafValues>
            -3.7648233771324158e-01 7.2027146816253662e-01</leafValues></_>
        <_>
          <internalNodes>
            0 -1 10 -6.4428299665451050e-02</internalNodes>
          <leafValues>
            5.0031548738479614e-01 -4.8296326398849487e-01</leafValues></_>
        <_>
          <internalNodes>
            0 -1 14 -4.4128017179900780e-05</internalNodes>
          <leafValues>
            -6.6429775953292847e-01 3.8157555460929871e-01</leafValues></_>
        <_>
          <internalNodes>
            0 -1 8 1.4792306348681450e-02</internalNodes>
          <leafValues>
            -3.5825634002685547e-01 7.1935254335403442e-01</leafValues></_>
        <_>
          <internalNodes>
            0 -1 45 4.1530843824148178e-02</internalNodes>
          <leafValues>
            -4.2133432626724243e-01 5.1736301183700562e-01</leafValues></_>
        <_>
          <internalNodes>
            0 -1 21 2.2968175471760333e-05</internalNodes>
          <leafValues>
            2.5518748164176941e-01 -7.6249849796295166e-01</leafValues></_></weakClassifiers></_>
    <!-- stage 6 -->
    <_>
      <maxWeakCount>5</maxWeakCount>
      <stageThreshold>-9.6220874786376953e-01</stageThreshold>
      <weakClassifiers>
        <_>
          <internalNodes>
            0 -1 44 1.7379798227921128e-03</internalNodes>
          <leafValues>
            -6.9855070114135742e-01 5.2967035770416260e-01</leafValues></_>
        <_>
          <internalNodes>
            0 -1 19 2.0136545572313480e-05</internalNodes>
          <leafValues>
            4.3283677101135254e-01 -8.5517638921737671e-01</leafValues></_>
        <_>
          <internalNodes>
            0 -1 22 3.2544778659939766e-03</internalNodes>
          <leafValues>
            -4.8129057884216309e-01 7.1448588371276855e-01</leafValues></_>
        <_>
          <internalNodes>
            0 -1 46 -2.4986011339933611e-05</internalNodes>
          <leafValues>
            -8.4096729755401611e-01 5.1156902313232422e-01</leafValues></_>
        <_>
          <internalNodes>
            0 -1 9 -1.0515260510146618e-03</internalNodes>
          <leafValues>
            6.2576305866241455e-01 -5.6031322479248047e-01</leafValues></_></weakClassifiers></_></stages>
  <features>
    <_>
      <rects>
        <_>
          0 17 39 33 -1.</_>
        <_>
          13 17 13 33 3.</_></rects>
      <tilted>0</tilted></_>
    <_>
      <rects>
        <_>
          0 21 30 8 -1.</_>
        <_>
          10 21 10 8 3.</_></rects>
      <tilted>0</tilted></_>
    <_>
      <rects>
        <_>
          0 21 33 6 -1.</_>
        <_>
          11 21 11 6 3.</_></rects>
      <tilted>0</tilted></_>
    <_>
      <rects>
        <_>
          0 25 24 7 -1.</_>
        <_>
          8 25 8 7 3.</_></rects>
      <tilted>0</tilted></_>
    <_>
      <rects>
        <_>
          0 29 21 4 -1.</_>
        <_>
          7 29 7 4 3.</_></rects>
      <tilted>0</tilted></_>
    <_>
      <rects>
        <_>
          0 37 28 13 -1.</_>
        <_>
          14 37 14 13 2.</_></rects>
      <tilted>0</tilted></_>
    <_>
      <rects>
        <_>
          3 0 24 54 -1.</_>
        <_>
          3 18 24 18 3.</_></rects>
      <tilted>0</tilted></_>
    <_>
      <rects>
        <_>
          4 19 55 28 -1.</_>
        <_>
          4 33 55 14 2.</_></rects>
      <tilted>0</tilted></_>
    <_>
      <rects>
        <_>
          6 11 26 7 -1.</_>
        <_>
          19 11 13 7 2.</_></rects>
      <tilted>0</tilted></_>
    <_>
      <rects>
        <_>
          6 39 10 12 -1.</_>
        <_>
          6 39 5 6 2.</_>
        <_>
          11 45 5 6 2.</_></rects>
      <tilted>0</tilted></_>
    <_>
      <rects>
        <_>
          7 42 42 22 -1.</_>
        <_>
          7 53 42 11 2.</_></rects>
      <tilted>0</tilted></_>
    <_>
      <rects>
        <_>
          8 0 6 57 -1.</_>
        <_>
          8 19 6 19 3.</_></rects>
      <tilted>0</tilted></_>
    <_>
      <rects>
        <_>
          8 10 49 54 -1.</_>
        <_>
          8 28 49 18 3.</_></rects>
      <tilted>0</tilted></_>
    <_>
      <rects>
        <_>
          10 0 5 54 -1.</_>
        <_>
          10 18 5 18 3.</_></rects>
      <tilted>0</tilted></_>
    <_>
      <rects>
        <_>
          14 23 3 9 -1.</_>
        <_>
          14 26 3 3 3.</_></rects>
      <tilted>0</tilted></_>
    <_>
      <rects>
        <_>
          15 20 24 24 -1.</_>
        <_>
          27 20 12 24 2.</_></rects>
      <tilted>0</tilted></_>
    <_>
      <rects>
        <_>
          15 24 3 1 -1.</_>
        <_>
          16 24 1 1 3.</_></rects>
      <tilted>0</tilted></_>
    <_>
      <rects>
        <_>
          16 16 36 18 -1.</_>
        <_>
          16 25 36 9 2.</_></rects>
      <tilted>0</tilted></_>
    <_>
      <rects>
        <_>
          16 18 36 21 -1.</_>
        <_>
          28 18 12 21 3.</_></rects>
      <tilted>0</tilted></_>
    <_>
      <rects>
        <_>
          16 20 2 8 -1.</_>
        <_>
          16 20 1 4 2.</_>
        <_>
          17 24 1 4 2.</_></rects>
      <tilted>0</tilted></_>
    <_>
      <rects>
        <_>
          17 24 1 4 -1.</_>
        <_>
          17 26 1 2 2.</_></rects>
      <tilted>0</tilted></_>
    <_>
      <rects>
        <_>
          18 24 3 2 -1.</_>
        <_>
          18 25 3 1 2.</_></rects>
      <tilted>0</tilted></_>
    <_>
      <rects>
        <_>
          18 32 12 6 -1.</_>
        <_>
          22 32 4 6 3.</_></rects>
      <tilted>0</tilted></_>
    <_>
      <rects>
        <_>
          18 44 24 20 -1.</_>
        <_>
          18 54 24 10 2.</_></rects>
      <tilted>0</tilted></_>
    <_>
      <rects>
        <_>
          19 18 33 10 -1.</_>
        <_>
          19 23 33 5 2.</_></rects>
      <tilted>0</tilted></_>
    <_>
      <rects>
        <_>
          19 26 31 14 -1.</_>
        <_>
          19 33 31 7 2.</_></rects>
      <tilted>0</tilted></_>
    <_>
      <rects>
        <_>
          19 29 6 14 -1.</_>
        <_>
          19 29 3 7 2.</_>
        <_>
          22 36 3 7 2.</_></rects>
      <tilted>0</tilted></_>
    <_>
      <rects>
        <_>
          19 39 15 5 -1.</_>
        <_>
          24 39 5 5 3.</_></rects>
      <tilted>0</tilted></_>
    <_>
      <rects>
        <_>
          20 20 3 4 -1.</_>
        <_>
          20 22 3 2 2.</_></rects>
      <tilted>0</tilted></_>
    <_>
      <rects>
        <_>
          20 25 28 36 -1.</_>
        <_>
          20 37 28 12 3.</_></rects>
      <tilted>0</tilted></_>
    <_>
      <rects>
        <_>
          22 32 42 18 -1.</_>
        <_>
          36 32 14 18 3.</_></rects>
      <tilted>0</tilted></_>
    <_>
      <rects>
        <_>
          24 16 19 48 -1.</_>
        <_>
          24 32 19 16 3.</_></rects>
      <tilted>0</tilted></_>
    <_>
      <rects>
        <_>
          26 15 19 12 -1.</_>
        <_>
          26 21 19 6 2.</_></rects>
      <tilted>0</tilted></_>
    <_>
      <rects>
        <_>
          26 19 19 45 -1.</_>
        <_>
          26 34 19 15 3.</_></rects>
      <tilted>0</tilted></_>
    <_>
      <rects>
        <_>
          27 21 26 24 -1.</_>
        <_>
          40 21 13 24 2.</_></rects>
      <tilted>0</tilted></_>
    <_>
      <rects>
        <_>
          32 23 32 22 -1.</_>
        <_>
          32 34 32 11 2.</_></rects>
      <tilted>0</tilted></_>
    <_>
      <rects>
        <_>
          35 23 20 3 -1.</_>
        <_>
          45 23 10 3 2.</_></rects>
      <tilted>0</tilted></_>
    <_>
      <rects>
        <_>
          38 20 22 10 -1.</_>
        <_>
          38 20 11 5 2.</_>
        <_>
          49 25 11 5 2.</_></rects>
      <tilted>0</tilted></_>
    <_>
      <rects>
        <_>
          38 22 14 12 -1.</_>
        <_>
          38 22 7 6 2.</_>
        <_>
          45 28 7 6 2.</_></rects>
      <tilted>0</tilted></_>
    <_>
      <rects>
        <_>
          39 35 24 16 -1.</_>
        <_>
          51 35 12 16 2.</_></rects>
      <tilted>0</tilted></_>
    <_>
      <rects>
        <_>
          40 22 24 7 -1.</_>
        <_>
          48 22 8 7 3.</_></rects>
      <tilted>0</tilted></_>
    <_>
      <rects>
        <_>
          44 13 12 20 -1.</_>
        <_>
          44 13 6 10 2.</_>
        <_>
          50 23 6 10 2.</_></rects>
      <tilted>0</tilted></_>
    <_>
      <rects>
        <_>
          44 27 4 14 -1.</_>
        <_>
          44 34 4 7 2.</_></rects>
      <tilted>0</tilted></_>
    <_>
      <rects>
        <_>
          46 3 6 33 -1.</_>
        <_>
          46 14 6 11 3.</_></rects>
      <tilted>0</tilted></_>
    <_>
      <rects>
        <_>
          49 10 3 27 -1.</_>
        <_>
          49 19 3 9 3.</_></rects>
      <tilted>0</tilted></_>
    <_>
      <rects>
        <_>
          50 0 7 57 -1.</_>
        <_>
          50 19 7 19 3.</_></rects>
      <tilted>0</tilted></_>
    <_>
      <rects>
        <_>
          52 26 2 3 -1.</_>
        <_>
          52 27 2 1 3.</_></rects>
      <tilted>0</tilted></_>
    <_>
      <rects>
        <_>
          54 8 10 30 -1.</_>
        <_>
          59 8 5 30 2.</_></rects>
      <tilted>0</tilted></_></features></cascade>
</opencv_storage>
