<?xml version="1.0"?>
<opencv_storage>
<cascade>
  <stageType>BOOST</stageType>
  <featureType>HAAR</featureType>
  <height>40</height>
  <width>40</width>
  <stageParams>
    <boostType>GAB</boostType>
    <minHitRate>9.9500000476837158e-01</minHitRate>
    <maxFalseAlarm>5.0000000000000000e-01</maxFalseAlarm>
    <weightTrimRate>9.4999999999999996e-01</weightTrimRate>
    <maxDepth>1</maxDepth>
    <maxWeakCount>100</maxWeakCount></stageParams>
  <featureParams>
    <maxCatCount>0</maxCatCount>
    <featSize>1</featSize>
    <mode>BASIC</mode></featureParams>
  <stageNum>14</stageNum>
  <stages>
    <!-- stage 0 -->
    <_>
      <maxWeakCount>3</maxWeakCount>
      <stageThreshold>-8.7760388851165771e-01</stageThreshold>
      <weakClassifiers>
        <_>
          <internalNodes>
            0 -1 39 1.8400046229362488e-01</internalNodes>
          <leafValues>
            -8.0748665332794189e-01 7.0892018079757690e-01</leafValues></_>
        <_>
          <internalNodes>
            0 -1 19 2.0953774452209473e-02</internalNodes>
          <leafValues>
            -6.9398760795593262e-01 7.0257961750030518e-01</leafValues></_>
        <_>
          <internalNodes>
            0 -1 84 -2.4564551189541817e-02</internalNodes>
          <leafValues>
            6.2387031316757202e-01 -6.3573801517486572e-01</leafValues></_></weakClassifiers></_>
    <!-- stage 1 -->
    <_>
      <maxWeakCount>5</maxWeakCount>
      <stageThreshold>-8.9642798900604248e-01</stageThreshold>
      <weakClassifiers>
        <_>
          <internalNodes>
            0 -1 44 -4.2740821838378906e-02</internalNodes>
          <leafValues>
            5.4545456171035767e-01 -8.3544301986694336e-01</leafValues></_>
        <_>
          <internalNodes>
            0 -1 35 1.7715906724333763e-02</internalNodes>
          <leafValues>
            -5.8535498380661011e-01 6.6579246520996094e-01</leafValues></_>
        <_>
          <internalNodes>
            0 -1 97 1.3474962674081326e-02</internalNodes>
          <leafValues>
            -6.3430005311965942e-01 5.2898067235946655e-01</leafValues></_>
        <_>
          <internalNodes>
            0 -1 7 2.7085794135928154e-02</internalNodes>
          <leafValues>
            -4.8893639445304871e-01 7.0558279752731323e-01</leafValues></_>
        <_>
          <internalNodes>
            0 -1 88 5.0695828394964337e-04</internalNodes>
          <leafValues>
            -6.5677112340927124e-01 4.8432573676109314e-01</leafValues></_></weakClassifiers></_>
    <!-- stage 2 -->
    <_>
      <maxWeakCount>6</maxWeakCount>
      <stageThreshold>-1.4386476278305054e+00</stageThreshold>
      <weakClassifiers>
        <_>
          <internalNodes>
            0 -1 47 4.1240509599447250e-02</internalNodes>
          <leafValues>
            -6.1979168653488159e-01 5.7211536169052124e-01</leafValues></_>
        <_>
          <internalNodes>
            0 -1 91 -2.4118870496749878e-02</internalNodes>
          <leafValues>
            4.9764141440391541e-01 -6.3835877180099487e-01</leafValues></_>
        <_>
          <internalNodes>
            0 -1 70 5.2354605868458748e-03</internalNodes>
          <leafValues>
            -4.9818339943885803e-01 4.6122997999191284e-01</leafValues></_>
        <_>
          <internalNodes>
            0 -1 10 4.7049322165548801e-03</internalNodes>
          <leafValues>
            -7.1375429630279541e-01 3.3558139204978943e-01</leafValues></_>
        <_>
          <internalNodes>
            0 -1 32 1.9561748206615448e-01</internalNodes>
          <leafValues>
            -6.6410082578659058e-01 3.6411759257316589e-01</leafValues></_>
        <_>
          <internalNodes>
            0 -1 25 2.1911119110882282e-03</internalNodes>
          <leafValues>
            -4.8979455232620239e-01 4.1439163684844971e-01</leafValues></_></weakClassifiers></_>
    <!-- stage 3 -->
    <_>
      <maxWeakCount>6</maxWeakCount>
      <stageThreshold>-7.7073407173156738e-01</stageThreshold>
      <weakClassifiers>
        <_>
          <internalNodes>
            0 -1 77 2.3266167845577002e-03</internalNodes>
          <leafValues>
            -5.8695650100708008e-01 5.0000000000000000e-01</leafValues></_>
        <_>
          <internalNodes>
            0 -1 3 3.2692305743694305e-02</internalNodes>
          <leafValues>
            -6.8025827407836914e-01 3.7204706668853760e-01</leafValues></_>
        <_>
          <internalNodes>
            0 -1 117 -7.7245607972145081e-03</internalNodes>
          <leafValues>
            6.6411179304122925e-01 -3.4988123178482056e-01</leafValues></_>
        <_>
          <internalNodes>
            0 -1 51 5.2390946075320244e-03</internalNodes>
          <leafValues>
            -8.2683008909225464e-01 3.4559467434883118e-01</leafValues></_>
        <_>
          <internalNodes>
            0 -1 48 2.0877271890640259e-02</internalNodes>
          <leafValues>
            -5.7477647066116333e-01 3.6814552545547485e-01</leafValues></_>
        <_>
          <internalNodes>
            0 -1 62 4.1417155414819717e-02</internalNodes>
          <leafValues>
            -8.0436396598815918e-01 2.5274115800857544e-01</leafValues></_></weakClassifiers></_>
    <!-- stage 4 -->
    <_>
      <maxWeakCount>7</maxWeakCount>
      <stageThreshold>-1.4671522378921509e+00</stageThreshold>
      <weakClassifiers>
        <_>
          <internalNodes>
            0 -1 57 -3.7931511178612709e-03</internalNodes>
          <leafValues>
            4.4708424806594849e-01 -6.1424332857131958e-01</leafValues></_>
        <_>
          <internalNodes>
            0 -1 79 -8.2551427185535431e-03</internalNodes>
          <leafValues>
            5.6543725728988647e-01 -4.4608291983604431e-01</leafValues></_>
        <_>
          <internalNodes>
            0 -1 1 4.8449179157614708e-03</internalNodes>
          <leafValues>
            -3.8334286212921143e-01 5.7430267333984375e-01</leafValues></_>
        <_>
          <internalNodes>
            0 -1 5 9.9183898419141769e-03</internalNodes>
          <leafValues>
            -4.9367561936378479e-01 4.9683198332786560e-01</leafValues></_>
        <_>
          <internalNodes>
            0 -1 116 -7.9188970848917961e-03</internalNodes>
          <leafValues>
            5.5859583616256714e-01 -3.5854431986808777e-01</leafValues></_>
        <_>
          <internalNodes>
            0 -1 12 -1.8623240292072296e-02</internalNodes>
          <leafValues>
            -8.6812758445739746e-01 2.4679432809352875e-01</leafValues></_>
        <_>
          <internalNodes>
            0 -1 67 2.1414803341031075e-02</internalNodes>
          <leafValues>
            -4.7938504815101624e-01 3.5099875926971436e-01</leafValues></_></weakClassifiers></_>
    <!-- stage 5 -->
    <_>
      <maxWeakCount>9</maxWeakCount>
      <stageThreshold>-9.8454093933105469e-01</stageThreshold>
      <weakClassifiers>
        <_>
          <internalNodes>
            0 -1 33 2.9578622430562973e-02</internalNodes>
          <leafValues>
            -4.7641509771347046e-01 5.3723406791687012e-01</leafValues></_>
        <_>
          <internalNodes>
            0 -1 85 9.8628634586930275e-03</internalNodes>
          <leafValues>
            -4.8885163664817810e-01 4.6698033809661865e-01</leafValues></_>
        <_>
          <internalNodes>
            0 -1 98 -1.1684458702802658e-02</internalNodes>
          <leafValues>
            6.1689770221710205e-01 -3.1809735298156738e-01</leafValues></_>
        <_>
          <internalNodes>
            0 -1 95 7.2843895759433508e-04</internalNodes>
          <leafValues>
            1.8600961565971375e-01 -8.2413250207901001e-01</leafValues></_>
        <_>
          <internalNodes>
            0 -1 102 -1.4146958710625768e-04</internalNodes>
          <leafValues>
            -7.1933728456497192e-01 2.0947387814521790e-01</leafValues></_>
        <_>
          <internalNodes>
            0 -1 50 -2.9735889256699011e-05</internalNodes>
          <leafValues>
            3.3993500471115112e-01 -5.0992876291275024e-01</leafValues></_>
        <_>
          <internalNodes>
            0 -1 11 -9.6791282296180725e-02</internalNodes>
          <leafValues>
            3.3580368757247925e-01 -5.0973373651504517e-01</leafValues></_>
        <_>
          <internalNodes>
            0 -1 115 9.4472226919606328e-04</internalNodes>
          <leafValues>
            -2.2564257681369781e-01 6.6156691312789917e-01</leafValues></_>
        <_>
          <internalNodes>
            0 -1 59 -1.5526887727901340e-04</internalNodes>
          <leafValues>
            3.0310732126235962e-01 -5.0418663024902344e-01</leafValues></_></weakClassifiers></_>
    <!-- stage 6 -->
    <_>
      <maxWeakCount>11</maxWeakCount>
      <stageThreshold>-8.7899428606033325e-01</stageThreshold>
      <weakClassifiers>
        <_>
          <internalNodes>
            0 -1 14 5.1279697567224503e-02</internalNodes>
          <leafValues>
            -3.6494845151901245e-01 5.6190478801727295e-01</leafValues></_>
        <_>
          <internalNodes>
            0 -1 86 -4.4710608199238777e-03</internalNodes>
          <leafValues>
            6.4628279209136963e-01 -2.8520187735557556e-01</leafValues></_>
        <_>
          <internalNodes>
            0 -1 39 2.1003128588199615e-01</internalNodes>
          <leafValues>
            -5.7784026861190796e-01 3.0573850870132446e-01</leafValues></_>
        <_>
          <internalNodes>
            0 -1 71 -1.9351603696122766e-03</internalNodes>
          <leafValues>
            2.1489064395427704e-01 -6.6208839416503906e-01</leafValues></_>
        <_>
          <internalNodes>
            0 -1 41 1.1855226941406727e-02</internalNodes>
          <leafValues>
            1.8354567885398865e-01 -8.9149713516235352e-01</leafValues></_>
        <_>
          <internalNodes>
            0 -1 113 9.8998313769698143e-03</internalNodes>
          <leafValues>
            -2.5667935609817505e-01 7.7584004402160645e-01</leafValues></_>
        <_>
          <internalNodes>
            0 -1 20 -2.1318838000297546e-02</internalNodes>
          <leafValues>
            -8.9789897203445435e-01 2.3025298118591309e-01</leafValues></_>
        <_>
          <internalNodes>
            0 -1 37 3.8668629713356495e-05</internalNodes>
          <leafValues>
            1.7230746150016785e-01 -7.7453881502151489e-01</leafValues></_>
        <_>
          <internalNodes>
            0 -1 112 8.4640607237815857e-03</internalNodes>
          <leafValues>
            -2.5522762537002563e-01 7.4429959058761597e-01</leafValues></_>
        <_>
          <internalNodes>
            0 -1 38 -1.0929780080914497e-02</internalNodes>
          <leafValues>
            7.7122408151626587e-01 -1.4119172096252441e-01</leafValues></_>
        <_>
          <internalNodes>
            0 -1 73 1.0308952769264579e-03</internalNodes>
          <leafValues>
            -4.1655012965202332e-01 3.9776557683944702e-01</leafValues></_></weakClassifiers></_>
    <!-- stage 7 -->
    <_>
      <maxWeakCount>10</maxWeakCount>
      <stageThreshold>-1.1450041532516479e+00</stageThreshold>
      <weakClassifiers>
        <_>
          <internalNodes>
            0 -1 118 -8.6666028946638107e-03</internalNodes>
          <leafValues>
            5.8644068241119385e-01 -3.4257426857948303e-01</leafValues></_>
        <_>
          <internalNodes>
            0 -1 68 2.1335132420063019e-02</internalNodes>
          <leafValues>
            -3.0719754099845886e-01 6.2277245521545410e-01</leafValues></_>
        <_>
          <internalNodes>
            0 -1 8 2.3234020918607712e-02</internalNodes>
          <leafValues>
            -7.5996136665344238e-01 2.6352256536483765e-01</leafValues></_>
        <_>
          <internalNodes>
            0 -1 78 9.7056792583316565e-04</internalNodes>
          <leafValues>
            -6.5613347291946411e-01 2.5152829289436340e-01</leafValues></_>
        <_>
          <internalNodes>
            0 -1 2 2.5750896893441677e-03</internalNodes>
          <leafValues>
            -4.4693335890769958e-01 3.4785553812980652e-01</leafValues></_>
        <_>
          <internalNodes>
            0 -1 63 2.7736686170101166e-02</internalNodes>
          <leafValues>
            -6.4291894435882568e-01 2.6251000165939331e-01</leafValues></_>
        <_>
          <internalNodes>
            0 -1 64 1.0344674810767174e-02</internalNodes>
          <leafValues>
            -7.6915103197097778e-01 1.9696731865406036e-01</leafValues></_>
        <_>
          <internalNodes>
            0 -1 40 5.1899754907935858e-05</internalNodes>
          <leafValues>
            -5.8036899566650391e-01 2.7083325386047363e-01</leafValues></_>
        <_>
          <internalNodes>
            0 -1 31 2.5918319821357727e-02</internalNodes>
          <leafValues>
            -2.2113856673240662e-01 7.7524232864379883e-01</leafValues></_>
        <_>
          <internalNodes>
            0 -1 114 -1.4550206833519042e-04</internalNodes>
          <leafValues>
            4.8042327165603638e-01 -3.1003874540328979e-01</leafValues></_></weakClassifiers></_>
    <!-- stage 8 -->
    <_>
      <maxWeakCount>11</maxWeakCount>
      <stageThreshold>-9.6958667039871216e-01</stageThreshold>
      <weakClassifiers>
        <_>
          <internalNodes>
            0 -1 28 -1.7556711100041866e-03</internalNodes>
          <leafValues>
            4.9579831957817078e-01 -3.9954853057861328e-01</leafValues></_>
        <_>
          <internalNodes>
            0 -1 4 6.4366981387138367e-02</internalNodes>
          <leafValues>
            -6.8776553869247437e-01 2.6371127367019653e-01</leafValues></_>
        <_>
          <internalNodes>
            0 -1 103 -7.6570874080061913e-03</internalNodes>
          <leafValues>
            6.5632390975952148e-01 -2.9397642612457275e-01</leafValues></_>
        <_>
          <internalNodes>
            0 -1 99 -3.1772382499184459e-05</internalNodes>
          <leafValues>
            -6.1720043420791626e-01 2.0698815584182739e-01</leafValues></_>
        <_>
          <internalNodes>
            0 -1 55 8.5026267915964127e-03</internalNodes>
          <leafValues>
            -5.7090419530868530e-01 2.9729232192039490e-01</leafValues></_>
        <_>
          <internalNodes>
            0 -1 58 2.7843778952956200e-02</internalNodes>
          <leafValues>
            -4.2545887827873230e-01 3.2994392514228821e-01</leafValues></_>
        <_>
          <internalNodes>
            0 -1 100 -2.2022870325599797e-05</internalNodes>
          <leafValues>
            -5.6378144025802612e-01 2.4647238850593567e-01</leafValues></_>
        <_>
          <internalNodes>
            0 -1 23 -2.7561094611883163e-04</internalNodes>
          <leafValues>
            5.2966731786727905e-01 -3.1932663917541504e-01</leafValues></_>
        <_>
          <internalNodes>
            0 -1 75 4.1898697963915765e-04</internalNodes>
          <leafValues>
            -3.8900104165077209e-01 3.3915859460830688e-01</leafValues></_>
        <_>
          <internalNodes>
            0 -1 46 1.3570632785558701e-02</internalNodes>
          <leafValues>
            -2.3390482366085052e-01 5.8938038349151611e-01</leafValues></_>
        <_>
          <internalNodes>
            0 -1 53 2.5216657668352127e-02</internalNodes>
          <leafValues>
            -5.9181773662567139e-01 2.3449948430061340e-01</leafValues></_></weakClassifiers></_>
    <!-- stage 9 -->
    <_>
      <maxWeakCount>11</maxWeakCount>
      <stageThreshold>-7.3467189073562622e-01</stageThreshold>
      <weakClassifiers>
        <_>
          <internalNodes>
            0 -1 120 -1.4031226746737957e-03</internalNodes>
          <leafValues>
            5.0595235824584961e-01 -3.6637932062149048e-01</leafValues></_>
        <_>
          <internalNodes>
            0 -1 6 2.9992729425430298e-02</internalNodes>
          <leafValues>
            -3.9631447196006775e-01 4.3242004513740540e-01</leafValues></_>
        <_>
          <internalNodes>
            0 -1 92 9.7560725407674909e-05</internalNodes>
          <leafValues>
            -5.3138512372970581e-01 2.9342296719551086e-01</leafValues></_>
        <_>
          <internalNodes>
            0 -1 87 -8.5652951383963227e-04</internalNodes>
          <leafValues>
            -7.8079473972320557e-01 2.3178493976593018e-01</leafValues></_>
        <_>
          <internalNodes>
            0 -1 94 1.5242306108120829e-04</internalNodes>
          <leafValues>
            -6.4696705341339111e-01 1.4583437144756317e-01</leafValues></_>
        <_>
          <internalNodes>
            0 -1 69 2.4840362370014191e-02</internalNodes>
          <leafValues>
            -2.5847458839416504e-01 5.4066705703735352e-01</leafValues></_>
        <_>
          <internalNodes>
            0 -1 66 9.0547129511833191e-03</internalNodes>
          <leafValues>
            -2.0577123761177063e-01 7.2683441638946533e-01</leafValues></_>
        <_>
          <internalNodes>
            0 -1 0 4.1696177795529366e-03</internalNodes>
          <leafValues>
            -4.6181583404541016e-01 2.9948943853378296e-01</leafValues></_>
        <_>
          <internalNodes>
            0 -1 29 -4.8627699725329876e-03</internalNodes>
          <leafValues>
            4.9383607506752014e-01 -2.9843133687973022e-01</leafValues></_>
        <_>
          <internalNodes>
            0 -1 93 -6.4904103055596352e-04</internalNodes>
          <leafValues>
            -7.0284354686737061e-01 2.0484198629856110e-01</leafValues></_>
        <_>
          <internalNodes>
            0 -1 82 -2.4860952980816364e-03</internalNodes>
          <leafValues>
            5.8466690778732300e-01 -2.4442669749259949e-01</leafValues></_></weakClassifiers></_>
    <!-- stage 10 -->
    <_>
      <maxWeakCount>11</maxWeakCount>
      <stageThreshold>-1.0053300857543945e+00</stageThreshold>
      <weakClassifiers>
        <_>
          <internalNodes>
            0 -1 107 -1.7671115696430206e-02</internalNodes>
          <leafValues>
            6.2790697813034058e-01 -2.3076923191547394e-01</leafValues></_>
        <_>
          <internalNodes>
            0 -1 109 1.8171560019254684e-02</internalNodes>
          <leafValues>
            -2.1549430489540100e-01 7.4429178237915039e-01</leafValues></_>
        <_>
          <internalNodes>
            0 -1 49 2.1659791469573975e-02</internalNodes>
          <leafValues>
            -2.7978989481925964e-01 4.2087239027023315e-01</leafValues></_>
        <_>
          <internalNodes>
            0 -1 105 -3.8128993764985353e-05</internalNodes>
          <leafValues>
            -6.0028457641601563e-01 1.9593040645122528e-01</leafValues></_>
        <_>
          <internalNodes>
            0 -1 56 -9.0695675462484360e-03</internalNodes>
          <leafValues>
            -7.3828577995300293e-01 2.3140507936477661e-01</leafValues></_>
        <_>
          <internalNodes>
            0 -1 26 2.4941843003034592e-02</internalNodes>
          <leafValues>
            1.3613575696945190e-01 -7.8357744216918945e-01</leafValues></_>
        <_>
          <internalNodes>
            0 -1 89 2.4038506671786308e-04</internalNodes>
          <leafValues>
            -5.9460538625717163e-01 2.1614676713943481e-01</leafValues></_>
        <_>
          <internalNodes>
            0 -1 104 -1.2276491361262742e-05</internalNodes>
          <leafValues>
            -4.9772480130195618e-01 2.6700744032859802e-01</leafValues></_>
        <_>
          <internalNodes>
            0 -1 17 2.2197317332029343e-02</internalNodes>
          <leafValues>
            -3.3334416151046753e-01 3.8591760396957397e-01</leafValues></_>
        <_>
          <internalNodes>
            0 -1 9 1.4184186235070229e-02</internalNodes>
          <leafValues>
            -1.9522029161453247e-01 7.1317887306213379e-01</leafValues></_>
        <_>
          <internalNodes>
            0 -1 36 2.4013887741602957e-04</internalNodes>
          <leafValues>
            1.6784597933292389e-01 -7.0996272563934326e-01</leafValues></_></weakClassifiers></_>
    <!-- stage 11 -->
    <_>
      <maxWeakCount>10</maxWeakCount>
      <stageThreshold>-7.3628365993499756e-01</stageThreshold>
      <weakClassifiers>
        <_>
          <internalNodes>
            0 -1 42 -2.4098861031234264e-03</internalNodes>
          <leafValues>
            2.7480915188789368e-01 -5.2173912525177002e-01</leafValues></_>
        <_>
          <internalNodes>
            0 -1 60 8.5697211325168610e-03</internalNodes>
          <leafValues>
            -2.0660507678985596e-01 6.4812058210372925e-01</leafValues></_>
        <_>
          <internalNodes>
            0 -1 106 2.6890935259871185e-05</internalNodes>
          <leafValues>
            2.1810306608676910e-01 -6.6735136508941650e-01</leafValues></_>
        <_>
          <internalNodes>
            0 -1 43 -1.2938841246068478e-04</internalNodes>
          <leafValues>
            -6.1619508266448975e-01 1.9572262465953827e-01</leafValues></_>
        <_>
          <internalNodes>
            0 -1 52 -2.1432484500110149e-03</internalNodes>
          <leafValues>
            -7.5886201858520508e-01 8.5453011095523834e-02</leafValues></_>
        <_>
          <internalNodes>
            0 -1 18 1.7688918858766556e-02</internalNodes>
          <leafValues>
            1.5585476160049438e-01 -8.1611353158950806e-01</leafValues></_>
        <_>
          <internalNodes>
            0 -1 13 -4.3818806298077106e-03</internalNodes>
          <leafValues>
            -8.0413192510604858e-01 1.3426677882671356e-01</leafValues></_>
        <_>
          <internalNodes>
            0 -1 15 2.1861851215362549e-02</internalNodes>
          <leafValues>
            -1.8786329030990601e-01 7.8282034397125244e-01</leafValues></_>
        <_>
          <internalNodes>
            0 -1 101 1.0355066508054733e-02</internalNodes>
          <leafValues>
            -1.6395352780818939e-01 6.8383044004440308e-01</leafValues></_>
        <_>
          <internalNodes>
            0 -1 110 1.3296122662723064e-02</internalNodes>
          <leafValues>
            -2.8721576929092407e-01 5.8178198337554932e-01</leafValues></_></weakClassifiers></_>
    <!-- stage 12 -->
    <_>
      <maxWeakCount>12</maxWeakCount>
      <stageThreshold>-9.0162229537963867e-01</stageThreshold>
      <weakClassifiers>
        <_>
          <internalNodes>
            0 -1 74 2.6210590731352568e-03</internalNodes>
          <leafValues>
            -5.1746034622192383e-01 3.3608248829841614e-01</leafValues></_>
        <_>
          <internalNodes>
            0 -1 16 -6.7410215735435486e-02</internalNodes>
          <leafValues>
            -8.8251787424087524e-01 1.7033293843269348e-01</leafValues></_>
        <_>
          <internalNodes>
            0 -1 22 -7.7619636431336403e-03</internalNodes>
          <leafValues>
            6.0939878225326538e-01 -2.3619835078716278e-01</leafValues></_>
        <_>
          <internalNodes>
            0 -1 30 1.6113294661045074e-01</internalNodes>
          <leafValues>
            -2.2563529014587402e-01 6.0754495859146118e-01</leafValues></_>
        <_>
          <internalNodes>
            0 -1 111 1.5025476925075054e-02</internalNodes>
          <leafValues>
            -2.3025783896446228e-01 5.7519048452377319e-01</leafValues></_>
        <_>
          <internalNodes>
            0 -1 108 1.4622319489717484e-02</internalNodes>
          <leafValues>
            -2.6508003473281860e-01 5.6878596544265747e-01</leafValues></_>
        <_>
          <internalNodes>
            0 -1 90 -1.4558901311829686e-03</internalNodes>
          <leafValues>
            -7.0286345481872559e-01 2.2783394157886505e-01</leafValues></_>
        <_>
          <internalNodes>
            0 -1 72 -1.4185634208843112e-03</internalNodes>
          <leafValues>
            4.0807756781578064e-01 -3.5102859139442444e-01</leafValues></_>
        <_>
          <internalNodes>
            0 -1 81 -2.8699347749352455e-03</internalNodes>
          <leafValues>
            2.1548844873905182e-01 -6.4914041757583618e-01</leafValues></_>
        <_>
          <internalNodes>
            0 -1 24 3.5870119463652372e-03</internalNodes>
          <leafValues>
            -4.4855621457099915e-01 3.6713570356369019e-01</leafValues></_>
        <_>
          <internalNodes>
            0 -1 27 2.6619629934430122e-02</internalNodes>
          <leafValues>
            -2.3359796404838562e-01 6.8171620368957520e-01</leafValues></_>
        <_>
          <internalNodes>
            0 -1 54 2.9130897019058466e-04</internalNodes>
          <leafValues>
            -3.4260851144790649e-01 4.3273887038230896e-01</leafValues></_></weakClassifiers></_>
    <!-- stage 13 -->
    <_>
      <maxWeakCount>10</maxWeakCount>
      <stageThreshold>-1.0717834234237671e+00</stageThreshold>
      <weakClassifiers>
        <_>
          <internalNodes>
            0 -1 83 6.8965501850470901e-04</internalNodes>
          <leafValues>
            -5.5471700429916382e-01 2.7476635575294495e-01</leafValues></_>
        <_>
          <internalNodes>
            0 -1 21 1.0616393759846687e-02</internalNodes>
          <leafValues>
            1.7590108513832092e-01 -7.3840951919555664e-01</leafValues></_>
        <_>
          <internalNodes>
            0 -1 45 -5.0852466374635696e-03</internalNodes>
          <leafValues>
            2.4229080975055695e-01 -6.2477600574493408e-01</leafValues></_>
        <_>
          <internalNodes>
            0 -1 80 1.1880465317517519e-03</internalNodes>
          <leafValues>
            -5.2412045001983643e-01 2.6553764939308167e-01</leafValues></_>
        <_>
          <internalNodes>
            0 -1 65 2.9223445802927017e-02</internalNodes>
          <leafValues>
            -2.0317722856998444e-01 6.8080556392669678e-01</leafValues></_>
        <_>
          <internalNodes>
            0 -1 119 -1.6916103195399046e-03</internalNodes>
          <leafValues>
            3.4909772872924805e-01 -3.8788571953773499e-01</leafValues></_>
        <_>
          <internalNodes>
            0 -1 96 -1.0036947205662727e-03</internalNodes>
          <leafValues>
            -8.1218320131301880e-01 1.8249519169330597e-01</leafValues></_>
        <_>
          <internalNodes>
            0 -1 34 2.6033143512904644e-04</internalNodes>
          <leafValues>
            -4.6218392252922058e-01 2.5627124309539795e-01</leafValues></_>
        <_>
          <internalNodes>
            0 -1 61 3.2399478368461132e-03</internalNodes>
          <leafValues>
            1.7936713993549347e-01 -8.1454265117645264e-01</leafValues></_>
        <_>
          <internalNodes>
            0 -1 76 8.1306733191013336e-03</internalNodes>
          <leafValues>
            -2.5248509645462036e-01 6.5063464641571045e-01</leafValues></_></weakClassifiers></_></stages>
  <features>
    <_>
      <rects>
        <_>
          0 7 6 30 -1.</_>
        <_>
          3 7 3 30 2.</_></rects>
      <tilted>0</tilted></_>
    <_>
      <rects>
        <_>
          0 11 4 19 -1.</_>
        <_>
          2 11 2 19 2.</_></rects>
      <tilted>0</tilted></_>
    <_>
      <rects>
        <_>
          0 12 4 20 -1.</_>
        <_>
          2 12 2 20 2.</_></rects>
      <tilted>0</tilted></_>
    <_>
      <rects>
        <_>
          0 14 30 13 -1.</_>
        <_>
          10 14 10 13 3.</_></rects>
      <tilted>0</tilted></_>
    <_>
      <rects>
        <_>
          0 14 36 14 -1.</_>
        <_>
          12 14 12 14 3.</_></rects>
      <tilted>0</tilted></_>
    <_>
      <rects>
        <_>
          0 14 39 1 -1.</_>
        <_>
          13 14 13 1 3.</_></rects>
      <tilted>0</tilted></_>
    <_>
      <rects>
        <_>
          0 17 16 5 -1.</_>
        <_>
          8 17 8 5 2.</_></rects>
      <tilted>0</tilted></_>
    <_>
      <rects>
        <_>
          0 20 16 5 -1.</_>
        <_>
          8 20 8 5 2.</_></rects>
      <tilted>0</tilted></_>
    <_>
      <rects>
        <_>
          1 14 30 15 -1.</_>
        <_>
          11 14 10 15 3.</_></rects>
      <tilted>0</tilted></_>
    <_>
      <rects>
        <_>
          1 17 9 10 -1.</_>
        <_>
          4 17 3 10 3.</_></rects>
      <tilted>0</tilted></_>
    <_>
      <rects>
        <_>
          1 25 36 1 -1.</_>
        <_>
          13 25 12 1 3.</_></rects>
      <tilted>0</tilted></_>
    <_>
      <rects>
        <_>
          2 12 26 28 -1.</_>
        <_>
          2 26 26 14 2.</_></rects>
      <tilted>0</tilted></_>
    <_>
      <rects>
        <_>
          2 14 30 14 -1.</_>
        <_>
          17 14 15 14 2.</_></rects>
      <tilted>0</tilted></_>
    <_>
      <rects>
        <_>
          2 20 28 3 -1.</_>
        <_>
          16 20 14 3 2.</_></rects>
      <tilted>0</tilted></_>
    <_>
      <rects>
        <_>
          3 17 18 7 -1.</_>
        <_>
          9 17 6 7 3.</_></rects>
      <tilted>0</tilted></_>
    <_>
      <rects>
        <_>
          4 9 6 16 -1.</_>
        <_>
          4 9 3 8 2.</_>
        <_>
          7 17 3 8 2.</_></rects>
      <tilted>0</tilted></_>
    <_>
      <rects>
        <_>
          5 13 32 15 -1.</_>
        <_>
          21 13 16 15 2.</_></rects>
      <tilted>0</tilted></_>
    <_>
      <rects>
        <_>
          5 17 12 9 -1.</_>
        <_>
          9 17 4 9 3.</_></rects>
      <tilted>0</tilted></_>
    <_>
      <rects>
        <_>
          5 19 30 3 -1.</_>
        <_>
          20 19 15 3 2.</_></rects>
      <tilted>0</tilted></_>
    <_>
      <rects>
        <_>
          6 16 15 8 -1.</_>
        <_>
          11 16 5 8 3.</_></rects>
      <tilted>0</tilted></_>
    <_>
      <rects>
        <_>
          6 19 30 4 -1.</_>
        <_>
          21 19 15 4 2.</_></rects>
      <tilted>0</tilted></_>
    <_>
      <rects>
        <_>
          6 20 27 6 -1.</_>
        <_>
          6 23 27 3 2.</_></rects>
      <tilted>0</tilted></_>
    <_>
      <rects>
        <_>
          6 36 24 4 -1.</_>
        <_>
          6 38 24 2 2.</_></rects>
      <tilted>0</tilted></_>
    <_>
      <rects>
        <_>
          7 6 6 8 -1.</_>
        <_>
          7 6 3 4 2.</_>
        <_>
          10 10 3 4 2.</_></rects>
      <tilted>0</tilted></_>
    <_>
      <rects>
        <_>
          7 12 6 8 -1.</_>
        <_>
          7 16 6 4 2.</_></rects>
      <tilted>0</tilted></_>
    <_>
      <rects>
        <_>
          7 17 12 1 -1.</_>
        <_>
          11 17 4 1 3.</_></rects>
      <tilted>0</tilted></_>
    <_>
      <rects>
        <_>
          8 15 23 10 -1.</_>
        <_>
          8 20 23 5 2.</_></rects>
      <tilted>0</tilted></_>
    <_>
      <rects>
        <_>
          8 17 8 10 -1.</_>
        <_>
          12 17 4 10 2.</_></rects>
      <tilted>0</tilted></_>
    <_>
      <rects>
        <_>
          9 13 6 8 -1.</_>
        <_>
          9 13 3 4 2.</_>
        <_>
          12 17 3 4 2.</_></rects>
      <tilted>0</tilted></_>
    <_>
      <rects>
        <_>
          9 27 8 6 -1.</_>
        <_>
          9 27 4 3 2.</_>
        <_>
          13 30 4 3 2.</_></rects>
      <tilted>0</tilted></_>
    <_>
      <rects>
        <_>
          10 0 29 20 -1.</_>
        <_>
          10 10 29 10 2.</_></rects>
      <tilted>0</tilted></_>
    <_>
      <rects>
        <_>
          10 1 19 9 -1.</_>
        <_>
          10 4 19 3 3.</_></rects>
      <tilted>0</tilted></_>
    <_>
      <rects>
        <_>
          10 1 29 39 -1.</_>
        <_>
          10 14 29 13 3.</_></rects>
      <tilted>0</tilted></_>
    <_>
      <rects>
        <_>
          10 7 3 27 -1.</_>
        <_>
          10 16 3 9 3.</_></rects>
      <tilted>0</tilted></_>
    <_>
      <rects>
        <_>
          10 15 3 11 -1.</_>
        <_>
          11 15 1 11 3.</_></rects>
      <tilted>0</tilted></_>
    <_>
      <rects>
        <_>
          10 17 12 14 -1.</_>
        <_>
          10 17 6 7 2.</_>
        <_>
          16 24 6 7 2.</_></rects>
      <tilted>0</tilted></_>
    <_>
      <rects>
        <_>
          10 19 1 3 -1.</_>
        <_>
          10 20 1 1 3.</_></rects>
      <tilted>0</tilted></_>
    <_>
      <rects>
        <_>
          10 24 3 2 -1.</_>
        <_>
          10 25 3 1 2.</_></rects>
      <tilted>0</tilted></_>
    <_>
      <rects>
        <_>
          10 36 30 4 -1.</_>
        <_>
          10 38 30 2 2.</_></rects>
      <tilted>0</tilted></_>
    <_>
      <rects>
        <_>
          11 1 18 39 -1.</_>
        <_>
          11 14 18 13 3.</_></rects>
      <tilted>0</tilted></_>
    <_>
      <rects>
        <_>
          11 15 3 11 -1.</_>
        <_>
          12 15 1 11 3.</_></rects>
      <tilted>0</tilted></_>
    <_>
      <rects>
        <_>
          11 15 28 7 -1.</_>
        <_>
          25 15 14 7 2.</_></rects>
      <tilted>0</tilted></_>
    <_>
      <rects>
        <_>
          11 19 12 3 -1.</_>
        <_>
          17 19 6 3 2.</_></rects>
      <tilted>0</tilted></_>
    <_>
      <rects>
        <_>
          11 20 1 6 -1.</_>
        <_>
          11 22 1 2 3.</_></rects>
      <tilted>0</tilted></_>
    <_>
      <rects>
        <_>
          11 22 17 16 -1.</_>
        <_>
          11 30 17 8 2.</_></rects>
      <tilted>0</tilted></_>
    <_>
      <rects>
        <_>
          11 23 26 4 -1.</_>
        <_>
          24 23 13 4 2.</_></rects>
      <tilted>0</tilted></_>
    <_>
      <rects>
        <_>
          12 0 28 6 -1.</_>
        <_>
          12 3 28 3 2.</_></rects>
      <tilted>0</tilted></_>
    <_>
      <rects>
        <_>
          12 4 3 36 -1.</_>
        <_>
          12 16 3 12 3.</_></rects>
      <tilted>0</tilted></_>
    <_>
      <rects>
        <_>
          12 6 17 18 -1.</_>
        <_>
          12 12 17 6 3.</_></rects>
      <tilted>0</tilted></_>
    <_>
      <rects>
        <_>
          12 8 17 12 -1.</_>
        <_>
          12 12 17 4 3.</_></rects>
      <tilted>0</tilted></_>
    <_>
      <rects>
        <_>
          12 14 2 6 -1.</_>
        <_>
          12 14 1 3 2.</_>
        <_>
          13 17 1 3 2.</_></rects>
      <tilted>0</tilted></_>
    <_>
      <rects>
        <_>
          12 14 27 12 -1.</_>
        <_>
          21 14 9 12 3.</_></rects>
      <tilted>0</tilted></_>
    <_>
      <rects>
        <_>
          12 17 3 20 -1.</_>
        <_>
          13 17 1 20 3.</_></rects>
      <tilted>0</tilted></_>
    <_>
      <rects>
        <_>
          12 18 27 8 -1.</_>
        <_>
          21 18 9 8 3.</_></rects>
      <tilted>0</tilted></_>
    <_>
      <rects>
        <_>
          12 24 12 2 -1.</_>
        <_>
          12 25 12 1 2.</_></rects>
      <tilted>0</tilted></_>
    <_>
      <rects>
        <_>
          13 5 1 30 -1.</_>
        <_>
          13 15 1 10 3.</_></rects>
      <tilted>0</tilted></_>
    <_>
      <rects>
        <_>
          13 10 6 18 -1.</_>
        <_>
          13 19 6 9 2.</_></rects>
      <tilted>0</tilted></_>
    <_>
      <rects>
        <_>
          13 16 6 7 -1.</_>
        <_>
          16 16 3 7 2.</_></rects>
      <tilted>0</tilted></_>
    <_>
      <rects>
        <_>
          13 20 14 15 -1.</_>
        <_>
          13 25 14 5 3.</_></rects>
      <tilted>0</tilted></_>
    <_>
      <rects>
        <_>
          13 21 4 4 -1.</_>
        <_>
          15 21 2 4 2.</_></rects>
      <tilted>0</tilted></_>
    <_>
      <rects>
        <_>
          14 3 16 6 -1.</_>
        <_>
          14 5 16 2 3.</_></rects>
      <tilted>0</tilted></_>
    <_>
      <rects>
        <_>
          14 9 3 19 -1.</_>
        <_>
          15 9 1 19 3.</_></rects>
      <tilted>0</tilted></_>
    <_>
      <rects>
        <_>
          14 11 16 27 -1.</_>
        <_>
          14 20 16 9 3.</_></rects>
      <tilted>0</tilted></_>
    <_>
      <rects>
        <_>
          14 13 10 27 -1.</_>
        <_>
          14 22 10 9 3.</_></rects>
      <tilted>0</tilted></_>
    <_>
      <rects>
        <_>
          14 17 24 6 -1.</_>
        <_>
          22 17 8 6 3.</_></rects>
      <tilted>0</tilted></_>
    <_>
      <rects>
        <_>
          15 6 10 12 -1.</_>
        <_>
          15 10 10 4 3.</_></rects>
      <tilted>0</tilted></_>
    <_>
      <rects>
        <_>
          15 18 15 2 -1.</_>
        <_>
          20 18 5 2 3.</_></rects>
      <tilted>0</tilted></_>
    <_>
      <rects>
        <_>
          15 18 7 18 -1.</_>
        <_>
          15 24 7 6 3.</_></rects>
      <tilted>0</tilted></_>
    <_>
      <rects>
        <_>
          16 5 8 15 -1.</_>
        <_>
          16 10 8 5 3.</_></rects>
      <tilted>0</tilted></_>
    <_>
      <rects>
        <_>
          16 7 10 12 -1.</_>
        <_>
          16 11 10 4 3.</_></rects>
      <tilted>0</tilted></_>
    <_>
      <rects>
        <_>
          16 13 16 6 -1.</_>
        <_>
          16 13 8 3 2.</_>
        <_>
          24 16 8 3 2.</_></rects>
      <tilted>0</tilted></_>
    <_>
      <rects>
        <_>
          16 20 16 8 -1.</_>
        <_>
          16 20 8 4 2.</_>
        <_>
          24 24 8 4 2.</_></rects>
      <tilted>0</tilted></_>
    <_>
      <rects>
        <_>
          17 14 7 4 -1.</_>
        <_>
          17 16 7 2 2.</_></rects>
      <tilted>0</tilted></_>
    <_>
      <rects>
        <_>
          17 19 3 6 -1.</_>
        <_>
          17 22 3 3 2.</_></rects>
      <tilted>0</tilted></_>
    <_>
      <rects>
        <_>
          17 19 4 8 -1.</_>
        <_>
          17 23 4 4 2.</_></rects>
      <tilted>0</tilted></_>
    <_>
      <rects>
        <_>
          18 15 8 2 -1.</_>
        <_>
          18 15 4 1 2.</_>
        <_>
          22 16 4 1 2.</_></rects>
      <tilted>0</tilted></_>
    <_>
      <rects>
        <_>
          18 26 5 9 -1.</_>
        <_>
          18 29 5 3 3.</_></rects>
      <tilted>0</tilted></_>
    <_>
      <rects>
        <_>
          19 19 8 2 -1.</_>
        <_>
          23 19 4 2 2.</_></rects>
      <tilted>0</tilted></_>
    <_>
      <rects>
        <_>
          21 19 6 3 -1.</_>
        <_>
          24 19 3 3 2.</_></rects>
      <tilted>0</tilted></_>
    <_>
      <rects>
        <_>
          21 20 8 12 -1.</_>
        <_>
          21 20 4 6 2.</_>
        <_>
          25 26 4 6 2.</_></rects>
      <tilted>0</tilted></_>
    <_>
      <rects>
        <_>
          21 21 8 3 -1.</_>
        <_>
          25 21 4 3 2.</_></rects>
      <tilted>0</tilted></_>
    <_>
      <rects>
        <_>
          21 22 1 18 -1.</_>
        <_>
          21 31 1 9 2.</_></rects>
      <tilted>0</tilted></_>
    <_>
      <rects>
        <_>
          22 6 8 4 -1.</_>
        <_>
          22 6 4 2 2.</_>
        <_>
          26 8 4 2 2.</_></rects>
      <tilted>0</tilted></_>
    <_>
      <rects>
        <_>
          22 14 6 6 -1.</_>
        <_>
          24 14 2 6 3.</_></rects>
      <tilted>0</tilted></_>
    <_>
      <rects>
        <_>
          22 18 18 8 -1.</_>
        <_>
          31 18 9 8 2.</_></rects>
      <tilted>0</tilted></_>
    <_>
      <rects>
        <_>
          22 21 12 4 -1.</_>
        <_>
          26 21 4 4 3.</_></rects>
      <tilted>0</tilted></_>
    <_>
      <rects>
        <_>
          23 8 8 6 -1.</_>
        <_>
          23 8 4 3 2.</_>
        <_>
          27 11 4 3 2.</_></rects>
      <tilted>0</tilted></_>
    <_>
      <rects>
        <_>
          23 16 8 3 -1.</_>
        <_>
          23 17 8 1 3.</_></rects>
      <tilted>0</tilted></_>
    <_>
      <rects>
        <_>
          23 19 9 2 -1.</_>
        <_>
          26 19 3 2 3.</_></rects>
      <tilted>0</tilted></_>
    <_>
      <rects>
        <_>
          23 20 6 2 -1.</_>
        <_>
          25 20 2 2 3.</_></rects>
      <tilted>0</tilted></_>
    <_>
      <rects>
        <_>
          24 1 3 21 -1.</_>
        <_>
          25 1 1 21 3.</_></rects>
      <tilted>0</tilted></_>
    <_>
      <rects>
        <_>
          24 14 10 19 -1.</_>
        <_>
          29 14 5 19 2.</_></rects>
      <tilted>0</tilted></_>
    <_>
      <rects>
        <_>
          24 16 6 4 -1.</_>
        <_>
          24 16 3 2 2.</_>
        <_>
          27 18 3 2 2.</_></rects>
      <tilted>0</tilted></_>
    <_>
      <rects>
        <_>
          24 17 9 2 -1.</_>
        <_>
          24 18 9 1 2.</_></rects>
      <tilted>0</tilted></_>
    <_>
      <rects>
        <_>
          24 20 6 2 -1.</_>
        <_>
          26 20 2 2 3.</_></rects>
      <tilted>0</tilted></_>
    <_>
      <rects>
        <_>
          24 20 5 3 -1.</_>
        <_>
          24 21 5 1 3.</_></rects>
      <tilted>0</tilted></_>
    <_>
      <rects>
        <_>
          24 23 7 3 -1.</_>
        <_>
          24 24 7 1 3.</_></rects>
      <tilted>0</tilted></_>
    <_>
      <rects>
        <_>
          25 0 1 39 -1.</_>
        <_>
          25 13 1 13 3.</_></rects>
      <tilted>0</tilted></_>
    <_>
      <rects>
        <_>
          25 8 8 10 -1.</_>
        <_>
          25 8 4 5 2.</_>
        <_>
          29 13 4 5 2.</_></rects>
      <tilted>0</tilted></_>
    <_>
      <rects>
        <_>
          25 16 2 4 -1.</_>
        <_>
          25 16 1 2 2.</_>
        <_>
          26 18 1 2 2.</_></rects>
      <tilted>0</tilted></_>
    <_>
      <rects>
        <_>
          26 14 2 6 -1.</_>
        <_>
          26 16 2 2 3.</_></rects>
      <tilted>0</tilted></_>
    <_>
      <rects>
        <_>
          26 19 9 5 -1.</_>
        <_>
          29 19 3 5 3.</_></rects>
      <tilted>0</tilted></_>
    <_>
      <rects>
        <_>
          26 20 4 3 -1.</_>
        <_>
          26 21 4 1 3.</_></rects>
      <tilted>0</tilted></_>
    <_>
      <rects>
        <_>
          28 11 6 8 -1.</_>
        <_>
          28 11 3 4 2.</_>
        <_>
          31 15 3 4 2.</_></rects>
      <tilted>0</tilted></_>
    <_>
      <rects>
        <_>
          28 18 1 3 -1.</_>
        <_>
          28 19 1 1 3.</_></rects>
      <tilted>0</tilted></_>
    <_>
      <rects>
        <_>
          28 19 1 2 -1.</_>
        <_>
          28 20 1 1 2.</_></rects>
      <tilted>0</tilted></_>
    <_>
      <rects>
        <_>
          28 23 1 2 -1.</_>
        <_>
          28 24 1 1 2.</_></rects>
      <tilted>0</tilted></_>
    <_>
      <rects>
        <_>
          29 8 6 16 -1.</_>
        <_>
          29 8 3 8 2.</_>
        <_>
          32 16 3 8 2.</_></rects>
      <tilted>0</tilted></_>
    <_>
      <rects>
        <_>
          29 20 6 14 -1.</_>
        <_>
          29 20 3 7 2.</_>
        <_>
          32 27 3 7 2.</_></rects>
      <tilted>0</tilted></_>
    <_>
      <rects>
        <_>
          30 2 6 26 -1.</_>
        <_>
          30 2 3 13 2.</_>
        <_>
          33 15 3 13 2.</_></rects>
      <tilted>0</tilted></_>
    <_>
      <rects>
        <_>
          30 11 9 20 -1.</_>
        <_>
          33 11 3 20 3.</_></rects>
      <tilted>0</tilted></_>
    <_>
      <rects>
        <_>
          31 12 9 9 -1.</_>
        <_>
          34 12 3 9 3.</_></rects>
      <tilted>0</tilted></_>
    <_>
      <rects>
        <_>
          31 18 4 16 -1.</_>
        <_>
          31 18 2 8 2.</_>
        <_>
          33 26 2 8 2.</_></rects>
      <tilted>0</tilted></_>
    <_>
      <rects>
        <_>
          32 6 4 20 -1.</_>
        <_>
          32 6 2 10 2.</_>
        <_>
          34 16 2 10 2.</_></rects>
      <tilted>0</tilted></_>
    <_>
      <rects>
        <_>
          33 15 6 2 -1.</_>
        <_>
          33 16 6 1 2.</_></rects>
      <tilted>0</tilted></_>
    <_>
      <rects>
        <_>
          33 18 2 5 -1.</_>
        <_>
          34 18 1 5 2.</_></rects>
      <tilted>0</tilted></_>
    <_>
      <rects>
        <_>
          36 10 4 30 -1.</_>
        <_>
          38 10 2 30 2.</_></rects>
      <tilted>0</tilted></_>
    <_>
      <rects>
        <_>
          36 13 4 16 -1.</_>
        <_>
          38 13 2 16 2.</_></rects>
      <tilted>0</tilted></_>
    <_>
      <rects>
        <_>
          36 13 4 20 -1.</_>
        <_>
          38 13 2 20 2.</_></rects>
      <tilted>0</tilted></_>
    <_>
      <rects>
        <_>
          37 10 2 27 -1.</_>
        <_>
          38 10 1 27 2.</_></rects>
      <tilted>0</tilted></_>
    <_>
      <rects>
        <_>
          38 12 2 16 -1.</_>
        <_>
          39 12 1 16 2.</_></rects>
      <tilted>0</tilted></_></features></cascade>
</opencv_storage>
