<?xml version="1.0"?>
<opencv_storage>
<cascade>
  <stageType>BOOST</stageType>
  <featureType>HAAR</featureType>
  <height>64</height>
  <width>64</width>
  <stageParams>
    <boostType>GAB</boostType>
    <minHitRate>9.9500000476837158e-01</minHitRate>
    <maxFalseAlarm>5.0000000000000000e-01</maxFalseAlarm>
    <weightTrimRate>9.4999999999999996e-01</weightTrimRate>
    <maxDepth>1</maxDepth>
    <maxWeakCount>100</maxWeakCount></stageParams>
  <featureParams>
    <maxCatCount>0</maxCatCount>
    <featSize>1</featSize>
    <mode>BASIC</mode></featureParams>
  <stageNum>10</stageNum>
  <stages>
    <!-- stage 0 -->
    <_>
      <maxWeakCount>2</maxWeakCount>
      <stageThreshold>-1.3498893007636070e-02</stageThreshold>
      <weakClassifiers>
        <_>
          <internalNodes>
            0 -1 40 1.0015707463026047e-02</internalNodes>
          <leafValues>
            -8.2014387845993042e-01 8.4887456893920898e-01</leafValues></_>
        <_>
          <internalNodes>
            0 -1 13 9.8714334890246391e-03</internalNodes>
          <leafValues>
            -7.7989876270294189e-01 8.0664497613906860e-01</leafValues></_></weakClassifiers></_>
    <!-- stage 1 -->
    <_>
      <maxWeakCount>6</maxWeakCount>
      <stageThreshold>-5.3870463371276855e-01</stageThreshold>
      <weakClassifiers>
        <_>
          <internalNodes>
            0 -1 36 -2.3892691358923912e-02</internalNodes>
          <leafValues>
            7.5530177354812622e-01 -5.6794422864913940e-01</leafValues></_>
        <_>
          <internalNodes>
            0 -1 1 3.8119450211524963e-02</internalNodes>
          <leafValues>
            -5.6838500499725342e-01 6.8800550699234009e-01</leafValues></_>
        <_>
          <internalNodes>
            0 -1 47 -6.3270301325246692e-05</internalNodes>
          <leafValues>
            -7.4515694379806519e-01 4.1928955912590027e-01</leafValues></_>
        <_>
          <internalNodes>
            0 -1 41 -4.3430824007373303e-05</internalNodes>
          <leafValues>
            -8.4778457880020142e-01 3.4935989975929260e-01</leafValues></_>
        <_>
          <internalNodes>
            0 -1 25 4.9972459673881531e-03</internalNodes>
          <leafValues>
            -4.5595860481262207e-01 6.4034354686737061e-01</leafValues></_>
        <_>
          <internalNodes>
            0 -1 42 -2.4657008907524869e-05</internalNodes>
          <leafValues>
            -9.4672667980194092e-01 2.9383203387260437e-01</leafValues></_></weakClassifiers></_>
    <!-- stage 2 -->
    <_>
      <maxWeakCount>6</maxWeakCount>
      <stageThreshold>-8.6912494897842407e-01</stageThreshold>
      <weakClassifiers>
        <_>
          <internalNodes>
            0 -1 22 6.7499750293791294e-03</internalNodes>
          <leafValues>
            -6.5690374374389648e-01 6.9137668609619141e-01</leafValues></_>
        <_>
          <internalNodes>
            0 -1 32 1.7023297026753426e-02</internalNodes>
          <leafValues>
            -6.1910569667816162e-01 5.4426258802413940e-01</leafValues></_>
        <_>
          <internalNodes>
            0 -1 29 4.8813465982675552e-03</internalNodes>
          <leafValues>
            -3.0463108420372009e-01 8.6332088708877563e-01</leafValues></_>
        <_>
          <internalNodes>
            0 -1 14 -3.2159572001546621e-03</internalNodes>
          <leafValues>
            4.3611705303192139e-01 -5.8699256181716919e-01</leafValues></_>
        <_>
          <internalNodes>
            0 -1 52 4.8481598496437073e-03</internalNodes>
          <leafValues>
            -3.4774723649024963e-01 8.5953229665756226e-01</leafValues></_>
        <_>
          <internalNodes>
            0 -1 51 -3.7829893699381500e-05</internalNodes>
          <leafValues>
            -5.6785893440246582e-01 4.8288711905479431e-01</leafValues></_></weakClassifiers></_>
    <!-- stage 3 -->
    <_>
      <maxWeakCount>5</maxWeakCount>
      <stageThreshold>-1.0385028123855591e+00</stageThreshold>
      <weakClassifiers>
        <_>
          <internalNodes>
            0 -1 49 2.2640331735601649e-05</internalNodes>
          <leafValues>
            5.7994580268859863e-01 -7.9012346267700195e-01</leafValues></_>
        <_>
          <internalNodes>
            0 -1 6 1.3247828930616379e-02</internalNodes>
          <leafValues>
            -5.2695250511169434e-01 6.0731881856918335e-01</leafValues></_>
        <_>
          <internalNodes>
            0 -1 48 -3.9674130675848573e-05</internalNodes>
          <leafValues>
            -7.5005340576171875e-01 5.3263759613037109e-01</leafValues></_>
        <_>
          <internalNodes>
            0 -1 37 4.3757125735282898e-02</internalNodes>
          <leafValues>
            -7.2983795404434204e-01 3.5194289684295654e-01</leafValues></_>
        <_>
          <internalNodes>
            0 -1 20 -1.0668329196050763e-05</internalNodes>
          <leafValues>
            -8.9429569244384766e-01 1.8307352066040039e-01</leafValues></_></weakClassifiers></_>
    <!-- stage 4 -->
    <_>
      <maxWeakCount>5</maxWeakCount>
      <stageThreshold>-9.3235737085342407e-01</stageThreshold>
      <weakClassifiers>
        <_>
          <internalNodes>
            0 -1 43 1.9502735085552558e-05</internalNodes>
          <leafValues>
            5.7104557752609253e-01 -8.1818181276321411e-01</leafValues></_>
        <_>
          <internalNodes>
            0 -1 9 2.1098710596561432e-02</internalNodes>
          <leafValues>
            -5.6366068124771118e-01 5.0696527957916260e-01</leafValues></_>
        <_>
          <internalNodes>
            0 -1 21 1.8996372091351077e-05</internalNodes>
          <leafValues>
            3.4912449121475220e-01 -8.7950092554092407e-01</leafValues></_>
        <_>
          <internalNodes>
            0 -1 53 4.0753185749053955e-03</internalNodes>
          <leafValues>
            -3.8433936238288879e-01 8.2095181941986084e-01</leafValues></_>
        <_>
          <internalNodes>
            0 -1 7 2.5227211415767670e-02</internalNodes>
          <leafValues>
            3.4679341316223145e-01 -9.0452742576599121e-01</leafValues></_></weakClassifiers></_>
    <!-- stage 5 -->
    <_>
      <maxWeakCount>6</maxWeakCount>
      <stageThreshold>-8.3126920461654663e-01</stageThreshold>
      <weakClassifiers>
        <_>
          <internalNodes>
            0 -1 0 2.5896441191434860e-02</internalNodes>
          <leafValues>
            -6.6844922304153442e-01 5.9607291221618652e-01</leafValues></_>
        <_>
          <internalNodes>
            0 -1 28 3.3534863032400608e-03</internalNodes>
          <leafValues>
            -3.5648319125175476e-01 7.8524726629257202e-01</leafValues></_>
        <_>
          <internalNodes>
            0 -1 31 9.7000692039728165e-03</internalNodes>
          <leafValues>
            -5.6976342201232910e-01 5.2163803577423096e-01</leafValues></_>
        <_>
          <internalNodes>
            0 -1 50 3.8969985325820744e-05</internalNodes>
          <leafValues>
            3.2950419187545776e-01 -7.9161804914474487e-01</leafValues></_>
        <_>
          <internalNodes>
            0 -1 4 4.0610907599329948e-03</internalNodes>
          <leafValues>
            -3.5159853100776672e-01 8.4298193454742432e-01</leafValues></_>
        <_>
          <internalNodes>
            0 -1 26 2.1163657307624817e-02</internalNodes>
          <leafValues>
            -3.5620951652526855e-01 7.9362565279006958e-01</leafValues></_></weakClassifiers></_>
    <!-- stage 6 -->
    <_>
      <maxWeakCount>5</maxWeakCount>
      <stageThreshold>-4.0244850516319275e-01</stageThreshold>
      <weakClassifiers>
        <_>
          <internalNodes>
            0 -1 34 -2.2747404727851972e-05</internalNodes>
          <leafValues>
            -7.6969695091247559e-01 5.8095240592956543e-01</leafValues></_>
        <_>
          <internalNodes>
            0 -1 24 4.7564199194312096e-03</internalNodes>
          <leafValues>
            -3.7776514887809753e-01 7.2819662094116211e-01</leafValues></_>
        <_>
          <internalNodes>
            0 -1 11 7.2593847289681435e-03</internalNodes>
          <leafValues>
            -5.0022119283676147e-01 5.7060301303863525e-01</leafValues></_>
        <_>
          <internalNodes>
            0 -1 38 1.9114710390567780e-02</internalNodes>
          <leafValues>
            -2.7941161394119263e-01 9.0082180500030518e-01</leafValues></_>
        <_>
          <internalNodes>
            0 -1 17 8.5624773055315018e-03</internalNodes>
          <leafValues>
            4.5382219552993774e-01 -6.2781322002410889e-01</leafValues></_></weakClassifiers></_>
    <!-- stage 7 -->
    <_>
      <maxWeakCount>7</maxWeakCount>
      <stageThreshold>-6.5483248233795166e-01</stageThreshold>
      <weakClassifiers>
        <_>
          <internalNodes>
            0 -1 30 2.3436495102941990e-03</internalNodes>
          <leafValues>
            -6.5898615121841431e-01 6.4860910177230835e-01</leafValues></_>
        <_>
          <internalNodes>
            0 -1 10 -3.7773610092699528e-03</internalNodes>
          <leafValues>
            -8.5463768243789673e-01 3.8856962323188782e-01</leafValues></_>
        <_>
          <internalNodes>
            0 -1 16 2.4370274331886321e-05</internalNodes>
          <leafValues>
            3.6571097373962402e-01 -8.0201625823974609e-01</leafValues></_>
        <_>
          <internalNodes>
            0 -1 35 -1.8804922699928284e-02</internalNodes>
          <leafValues>
            2.8142151236534119e-01 -8.3544993400573730e-01</leafValues></_>
        <_>
          <internalNodes>
            0 -1 8 4.4055376201868057e-03</internalNodes>
          <leafValues>
            -6.1246943473815918e-01 4.1261744499206543e-01</leafValues></_>
        <_>
          <internalNodes>
            0 -1 45 1.3159606605768204e-03</internalNodes>
          <leafValues>
            -5.2984911203384399e-01 4.9104604125022888e-01</leafValues></_>
        <_>
          <internalNodes>
            0 -1 39 -2.0366365788504481e-05</internalNodes>
          <leafValues>
            -7.5498402118682861e-01 3.3308228850364685e-01</leafValues></_></weakClassifiers></_>
    <!-- stage 8 -->
    <_>
      <maxWeakCount>6</maxWeakCount>
      <stageThreshold>-1.0457698106765747e+00</stageThreshold>
      <weakClassifiers>
        <_>
          <internalNodes>
            0 -1 12 -1.3110419968143106e-04</internalNodes>
          <leafValues>
            -8.4551149606704712e-01 3.6128455400466919e-01</leafValues></_>
        <_>
          <internalNodes>
            0 -1 33 -1.7098234966397285e-03</internalNodes>
          <leafValues>
            6.6749596595764160e-01 -4.3266627192497253e-01</leafValues></_>
        <_>
          <internalNodes>
            0 -1 5 3.0678110197186470e-02</internalNodes>
          <leafValues>
            -4.4277870655059814e-01 5.5993223190307617e-01</leafValues></_>
        <_>
          <internalNodes>
            0 -1 44 7.9155303537845612e-03</internalNodes>
          <leafValues>
            -6.9815021753311157e-01 3.4147435426712036e-01</leafValues></_>
        <_>
          <internalNodes>
            0 -1 27 3.7962321657687426e-03</internalNodes>
          <leafValues>
            -3.2899191975593567e-01 7.1212422847747803e-01</leafValues></_>
        <_>
          <internalNodes>
            0 -1 3 2.0668383222073317e-03</internalNodes>
          <leafValues>
            -3.1532534956932068e-01 6.6270422935485840e-01</leafValues></_></weakClassifiers></_>
    <!-- stage 9 -->
    <_>
      <maxWeakCount>6</maxWeakCount>
      <stageThreshold>-1.0994894504547119e+00</stageThreshold>
      <weakClassifiers>
        <_>
          <internalNodes>
            0 -1 19 -3.0726350814802572e-05</internalNodes>
          <leafValues>
            -8.9247310161590576e-01 3.6563876271247864e-01</leafValues></_>
        <_>
          <internalNodes>
            0 -1 23 8.9063383638858795e-03</internalNodes>
          <leafValues>
            -3.6781758069992065e-01 7.1149587631225586e-01</leafValues></_>
        <_>
          <internalNodes>
            0 -1 46 -7.2090537287294865e-05</internalNodes>
          <leafValues>
            -7.0598405599594116e-01 3.3351686596870422e-01</leafValues></_>
        <_>
          <internalNodes>
            0 -1 18 5.0090580771211535e-05</internalNodes>
          <leafValues>
            4.1490066051483154e-01 -6.6984367370605469e-01</leafValues></_>
        <_>
          <internalNodes>
            0 -1 15 -3.3508797059766948e-05</internalNodes>
          <leafValues>
            -8.3159661293029785e-01 2.3789967596530914e-01</leafValues></_>
        <_>
          <internalNodes>
            0 -1 2 -9.3971081078052521e-03</internalNodes>
          <leafValues>
            -8.4060007333755493e-01 2.4398040771484375e-01</leafValues></_></weakClassifiers></_></stages>
  <features>
    <_>
      <rects>
        <_>
          0 22 28 25 -1.</_>
        <_>
          14 22 14 25 2.</_></rects>
      <tilted>0</tilted></_>
    <_>
      <rects>
        <_>
          3 23 33 16 -1.</_>
        <_>
          14 23 11 16 3.</_></rects>
      <tilted>0</tilted></_>
    <_>
      <rects>
        <_>
          4 27 56 5 -1.</_>
        <_>
          32 27 28 5 2.</_></rects>
      <tilted>0</tilted></_>
    <_>
      <rects>
        <_>
          6 26 6 13 -1.</_>
        <_>
          8 26 2 13 3.</_></rects>
      <tilted>0</tilted></_>
    <_>
      <rects>
        <_>
          6 26 9 13 -1.</_>
        <_>
          9 26 3 13 3.</_></rects>
      <tilted>0</tilted></_>
    <_>
      <rects>
        <_>
          6 27 24 12 -1.</_>
        <_>
          14 27 8 12 3.</_></rects>
      <tilted>0</tilted></_>
    <_>
      <rects>
        <_>
          8 24 21 7 -1.</_>
        <_>
          15 24 7 7 3.</_></rects>
      <tilted>0</tilted></_>
    <_>
      <rects>
        <_>
          8 27 56 14 -1.</_>
        <_>
          36 27 28 14 2.</_></rects>
      <tilted>0</tilted></_>
    <_>
      <rects>
        <_>
          10 31 32 22 -1.</_>
        <_>
          10 31 16 11 2.</_>
        <_>
          26 42 16 11 2.</_></rects>
      <tilted>0</tilted></_>
    <_>
      <rects>
        <_>
          12 6 18 43 -1.</_>
        <_>
          18 6 6 43 3.</_></rects>
      <tilted>0</tilted></_>
    <_>
      <rects>
        <_>
          13 8 19 34 -1.</_>
        <_>
          13 25 19 17 2.</_></rects>
      <tilted>0</tilted></_>
    <_>
      <rects>
        <_>
          15 5 1 57 -1.</_>
        <_>
          15 24 1 19 3.</_></rects>
      <tilted>0</tilted></_>
    <_>
      <rects>
        <_>
          15 32 4 13 -1.</_>
        <_>
          17 32 2 13 2.</_></rects>
      <tilted>0</tilted></_>
    <_>
      <rects>
        <_>
          16 9 7 28 -1.</_>
        <_>
          16 23 7 14 2.</_></rects>
      <tilted>0</tilted></_>
    <_>
      <rects>
        <_>
          16 25 2 32 -1.</_>
        <_>
          16 41 2 16 2.</_></rects>
      <tilted>0</tilted></_>
    <_>
      <rects>
        <_>
          18 23 1 10 -1.</_>
        <_>
          18 28 1 5 2.</_></rects>
      <tilted>0</tilted></_>
    <_>
      <rects>
        <_>
          18 28 1 6 -1.</_>
        <_>
          18 31 1 3 2.</_></rects>
      <tilted>0</tilted></_>
    <_>
      <rects>
        <_>
          19 20 25 16 -1.</_>
        <_>
          19 28 25 8 2.</_></rects>
      <tilted>0</tilted></_>
    <_>
      <rects>
        <_>
          19 25 1 10 -1.</_>
        <_>
          19 30 1 5 2.</_></rects>
      <tilted>0</tilted></_>
    <_>
      <rects>
        <_>
          19 28 1 6 -1.</_>
        <_>
          19 31 1 3 2.</_></rects>
      <tilted>0</tilted></_>
    <_>
      <rects>
        <_>
          19 29 1 2 -1.</_>
        <_>
          19 30 1 1 2.</_></rects>
      <tilted>0</tilted></_>
    <_>
      <rects>
        <_>
          19 29 1 3 -1.</_>
        <_>
          19 30 1 1 3.</_></rects>
      <tilted>0</tilted></_>
    <_>
      <rects>
        <_>
          20 0 1 63 -1.</_>
        <_>
          20 21 1 21 3.</_></rects>
      <tilted>0</tilted></_>
    <_>
      <rects>
        <_>
          21 44 26 9 -1.</_>
        <_>
          21 47 26 3 3.</_></rects>
      <tilted>0</tilted></_>
    <_>
      <rects>
        <_>
          22 14 22 9 -1.</_>
        <_>
          22 17 22 3 3.</_></rects>
      <tilted>0</tilted></_>
    <_>
      <rects>
        <_>
          23 12 17 9 -1.</_>
        <_>
          23 15 17 3 3.</_></rects>
      <tilted>0</tilted></_>
    <_>
      <rects>
        <_>
          24 10 14 21 -1.</_>
        <_>
          24 17 14 7 3.</_></rects>
      <tilted>0</tilted></_>
    <_>
      <rects>
        <_>
          26 10 16 9 -1.</_>
        <_>
          26 13 16 3 3.</_></rects>
      <tilted>0</tilted></_>
    <_>
      <rects>
        <_>
          26 11 23 9 -1.</_>
        <_>
          26 14 23 3 3.</_></rects>
      <tilted>0</tilted></_>
    <_>
      <rects>
        <_>
          27 45 9 9 -1.</_>
        <_>
          27 48 9 3 3.</_></rects>
      <tilted>0</tilted></_>
    <_>
      <rects>
        <_>
          28 26 20 8 -1.</_>
        <_>
          38 26 10 8 2.</_></rects>
      <tilted>0</tilted></_>
    <_>
      <rects>
        <_>
          31 27 18 10 -1.</_>
        <_>
          40 27 9 10 2.</_></rects>
      <tilted>0</tilted></_>
    <_>
      <rects>
        <_>
          36 20 18 23 -1.</_>
        <_>
          42 20 6 23 3.</_></rects>
      <tilted>0</tilted></_>
    <_>
      <rects>
        <_>
          37 40 14 6 -1.</_>
        <_>
          37 40 7 3 2.</_>
        <_>
          44 43 7 3 2.</_></rects>
      <tilted>0</tilted></_>
    <_>
      <rects>
        <_>
          38 31 6 2 -1.</_>
        <_>
          41 31 3 2 2.</_></rects>
      <tilted>0</tilted></_>
    <_>
      <rects>
        <_>
          40 22 24 23 -1.</_>
        <_>
          52 22 12 23 2.</_></rects>
      <tilted>0</tilted></_>
    <_>
      <rects>
        <_>
          41 21 20 22 -1.</_>
        <_>
          51 21 10 22 2.</_></rects>
      <tilted>0</tilted></_>
    <_>
      <rects>
        <_>
          42 0 6 63 -1.</_>
        <_>
          42 21 6 21 3.</_></rects>
      <tilted>0</tilted></_>
    <_>
      <rects>
        <_>
          42 25 18 15 -1.</_>
        <_>
          48 25 6 15 3.</_></rects>
      <tilted>0</tilted></_>
    <_>
      <rects>
        <_>
          43 28 3 10 -1.</_>
        <_>
          44 28 1 10 3.</_></rects>
      <tilted>0</tilted></_>
    <_>
      <rects>
        <_>
          44 4 2 60 -1.</_>
        <_>
          44 24 2 20 3.</_></rects>
      <tilted>0</tilted></_>
    <_>
      <rects>
        <_>
          44 25 3 12 -1.</_>
        <_>
          45 25 1 12 3.</_></rects>
      <tilted>0</tilted></_>
    <_>
      <rects>
        <_>
          44 32 1 3 -1.</_>
        <_>
          44 33 1 1 3.</_></rects>
      <tilted>0</tilted></_>
    <_>
      <rects>
        <_>
          44 32 2 2 -1.</_>
        <_>
          44 33 2 1 2.</_></rects>
      <tilted>0</tilted></_>
    <_>
      <rects>
        <_>
          45 9 5 32 -1.</_>
        <_>
          45 25 5 16 2.</_></rects>
      <tilted>0</tilted></_>
    <_>
      <rects>
        <_>
          45 10 1 18 -1.</_>
        <_>
          45 19 1 9 2.</_></rects>
      <tilted>0</tilted></_>
    <_>
      <rects>
        <_>
          45 20 9 16 -1.</_>
        <_>
          45 28 9 8 2.</_></rects>
      <tilted>0</tilted></_>
    <_>
      <rects>
        <_>
          45 22 6 21 -1.</_>
        <_>
          47 22 2 21 3.</_></rects>
      <tilted>0</tilted></_>
    <_>
      <rects>
        <_>
          46 32 1 6 -1.</_>
        <_>
          46 35 1 3 2.</_></rects>
      <tilted>0</tilted></_>
    <_>
      <rects>
        <_>
          46 33 1 6 -1.</_>
        <_>
          46 36 1 3 2.</_></rects>
      <tilted>0</tilted></_>
    <_>
      <rects>
        <_>
          46 34 2 11 -1.</_>
        <_>
          47 34 1 11 2.</_></rects>
      <tilted>0</tilted></_>
    <_>
      <rects>
        <_>
          48 33 1 6 -1.</_>
        <_>
          48 36 1 3 2.</_></rects>
      <tilted>0</tilted></_>
    <_>
      <rects>
        <_>
          51 28 9 10 -1.</_>
        <_>
          54 28 3 10 3.</_></rects>
      <tilted>0</tilted></_>
    <_>
      <rects>
        <_>
          53 28 9 11 -1.</_>
        <_>
          56 28 3 11 3.</_></rects>
      <tilted>0</tilted></_></features></cascade>
</opencv_storage>
